<?xml version="1.0"?>
<opencv_storage>
<stage37>
  <maxWeakCount>20</maxWeakCount>
  <stageThreshold>4.4761031866073608e-02</stageThreshold>
  <weakClassifiers>
    <_>
      <internalNodes>
        0 -1 70569 -7.6227765530347824e-03</internalNodes>
      <leafValues>
        -3.0000001192092896e-01 8.2298851013183594e-01</leafValues></_>
    <_>
      <internalNodes>
        0 -1 61609 2.7206430677324533e-03</internalNodes>
      <leafValues>
        1.7324946820735931e-01 7.6157903671264648e-01</leafValues></_>
    <_>
      <internalNodes>
        0 -1 23021 -2.0562648773193359e-02</internalNodes>
      <leafValues>
        8.4613597393035889e-01 -6.3620142638683319e-02</leafValues></_>
    <_>
      <internalNodes>
        0 -1 13883 1.3449823018163443e-03</internalNodes>
      <leafValues>
        -1.7270340025424957e-01 5.3877586126327515e-01</leafValues></_>
    <_>
      <internalNodes>
        0 -1 69981 -2.8011354152113199e-04</internalNodes>
      <leafValues>
        3.2392922043800354e-01 -2.7556544542312622e-01</leafValues></_>
    <_>
      <internalNodes>
        0 -1 64930 -5.3601432591676712e-03</internalNodes>
      <leafValues>
        -6.2817305326461792e-01 1.6642433404922485e-01</leafValues></_>
    <_>
      <internalNodes>
        0 -1 64764 1.8733377801254392e-03</internalNodes>
      <leafValues>
        -1.5993711352348328e-01 5.9468877315521240e-01</leafValues></_>
    <_>
      <internalNodes>
        0 -1 2464 5.8540880680084229e-02</internalNodes>
      <leafValues>
        2.0863504707813263e-01 -4.4478476047515869e-01</leafValues></_>
    <_>
      <internalNodes>
        0 -1 4672 3.9447773247957230e-02</internalNodes>
      <leafValues>
        -8.8517539203166962e-02 1.</leafValues></_>
    <_>
      <internalNodes>
        0 -1 48780 -3.0266775283962488e-03</internalNodes>
      <leafValues>
        8.4084147214889526e-01 -7.0129558444023132e-02</leafValues></_>
    <_>
      <internalNodes>
        0 -1 24149 4.4742159545421600e-02</internalNodes>
      <leafValues>
        -7.5344748795032501e-02 7.9532194137573242e-01</leafValues></_>
    <_>
      <internalNodes>
        0 -1 38465 -1.3742521405220032e-02</internalNodes>
      <leafValues>
        5.7791936397552490e-01 -1.1729600280523300e-01</leafValues></_>
    <_>
      <internalNodes>
        0 -1 33824 2.5127441622316837e-03</internalNodes>
      <leafValues>
        -1.5934307873249054e-01 4.3756648898124695e-01</leafValues></_>
    <_>
      <internalNodes>
        0 -1 63037 1.0604625567793846e-03</internalNodes>
      <leafValues>
        1.9390957057476044e-01 -3.9189624786376953e-01</leafValues></_>
    <_>
      <internalNodes>
        0 -1 8250 -3.8228457560762763e-04</internalNodes>
      <leafValues>
        -2.2231717407703400e-01 3.7099462747573853e-01</leafValues></_>
    <_>
      <internalNodes>
        0 -1 12812 -3.3984407782554626e-02</internalNodes>
      <leafValues>
        -5.6746000051498413e-01 1.5703381597995758e-01</leafValues></_>
    <_>
      <internalNodes>
        0 -1 32735 1.1448140721768141e-03</internalNodes>
      <leafValues>
        -2.4658901989459991e-01 4.1755747795104980e-01</leafValues></_>
    <_>
      <internalNodes>
        0 -1 78382 5.3312498494051397e-05</internalNodes>
      <leafValues>
        -2.2542914748191833e-01 4.0497449040412903e-01</leafValues></_>
    <_>
      <internalNodes>
        0 -1 73473 5.6726613547652960e-04</internalNodes>
      <leafValues>
        -1.9683612883090973e-01 5.2718514204025269e-01</leafValues></_>
    <_>
      <internalNodes>
        0 -1 66866 -3.6401050165295601e-03</internalNodes>
      <leafValues>
        4.8045504093170166e-01 -1.9716301560401917e-01</leafValues></_></weakClassifiers></stage37>
</opencv_storage>
