<?xml version="1.0"?>
<opencv_storage>
<stage3>
  <maxWeakCount>19</maxWeakCount>
  <stageThreshold>-1.7591919004917145e-01</stageThreshold>
  <weakClassifiers>
    <_>
      <internalNodes>
        0 -1 64753 -2.2905301302671432e-02</internalNodes>
      <leafValues>
        -4.2857143282890320e-01 8.1735157966613770e-01</leafValues></_>
    <_>
      <internalNodes>
        0 -1 9661 -1.9257817184552550e-03</internalNodes>
      <leafValues>
        7.5299030542373657e-01 9.7273074090480804e-02</leafValues></_>
    <_>
      <internalNodes>
        0 -1 26340 -5.2812108770012856e-03</internalNodes>
      <leafValues>
        6.2459772825241089e-01 -1.3650143146514893e-01</leafValues></_>
    <_>
      <internalNodes>
        0 -1 50667 -2.5606816634535789e-03</internalNodes>
      <leafValues>
        5.6774306297302246e-01 -1.9326674938201904e-01</leafValues></_>
    <_>
      <internalNodes>
        0 -1 74913 9.5401401631534100e-04</internalNodes>
      <leafValues>
        -2.1057967841625214e-01 4.6901655197143555e-01</leafValues></_>
    <_>
      <internalNodes>
        0 -1 70446 -1.0575526393949986e-03</internalNodes>
      <leafValues>
        4.0851044654846191e-01 -2.8207838535308838e-01</leafValues></_>
    <_>
      <internalNodes>
        0 -1 54592 3.5831686109304428e-03</internalNodes>
      <leafValues>
        -2.1445184946060181e-01 5.2186489105224609e-01</leafValues></_>
    <_>
      <internalNodes>
        0 -1 66734 4.3184280395507812e-02</internalNodes>
      <leafValues>
        -1.1069311946630478e-01 9.3094038963317871e-01</leafValues></_>
    <_>
      <internalNodes>
        0 -1 50851 6.4885674510151148e-04</internalNodes>
      <leafValues>
        -2.1022228896617889e-01 4.7986561059951782e-01</leafValues></_>
    <_>
      <internalNodes>
        0 -1 13610 -7.8660971485078335e-04</internalNodes>
      <leafValues>
        5.3819406032562256e-01 -2.0682668685913086e-01</leafValues></_>
    <_>
      <internalNodes>
        0 -1 58508 2.4521857267245650e-04</internalNodes>
      <leafValues>
        -2.6124352216720581e-01 4.9718561768531799e-01</leafValues></_>
    <_>
      <internalNodes>
        0 -1 44065 -1.1878856457769871e-03</internalNodes>
      <leafValues>
        6.5588176250457764e-01 -1.4883574843406677e-01</leafValues></_>
    <_>
      <internalNodes>
        0 -1 5053 -6.7092911340296268e-03</internalNodes>
      <leafValues>
        8.7388503551483154e-01 -9.2423737049102783e-02</leafValues></_>
    <_>
      <internalNodes>
        0 -1 75936 2.2110498975962400e-03</internalNodes>
      <leafValues>
        -1.9529074430465698e-01 4.6433398127555847e-01</leafValues></_>
    <_>
      <internalNodes>
        0 -1 45784 -4.9469158053398132e-02</internalNodes>
      <leafValues>
        -4.0753456950187683e-01 2.4574063718318939e-01</leafValues></_>
    <_>
      <internalNodes>
        0 -1 39517 1.2050173245370388e-03</internalNodes>
      <leafValues>
        -2.2506222128868103e-01 5.0062984228134155e-01</leafValues></_>
    <_>
      <internalNodes>
        0 -1 60839 -1.3170361518859863e-02</internalNodes>
      <leafValues>
        -7.4525994062423706e-01 1.6055761277675629e-01</leafValues></_>
    <_>
      <internalNodes>
        0 -1 65214 3.3008507452905178e-03</internalNodes>
      <leafValues>
        -1.7150364816188812e-01 7.3316526412963867e-01</leafValues></_>
    <_>
      <internalNodes>
        0 -1 75059 -7.3352426989004016e-04</internalNodes>
      <leafValues>
        -2.8896000981330872e-01 3.6665248870849609e-01</leafValues></_></weakClassifiers></stage3>
</opencv_storage>
