<?xml version="1.0"?>
<opencv_storage>
<stage5>
  <maxWeakCount>17</maxWeakCount>
  <stageThreshold>-1.1542350053787231e-01</stageThreshold>
  <weakClassifiers>
    <_>
      <internalNodes>
        0 -1 32466 -4.4418413192033768e-02</internalNodes>
      <leafValues>
        -8.0000001192092896e-01 8.1590908765792847e-01</leafValues></_>
    <_>
      <internalNodes>
        0 -1 70315 -3.4488050732761621e-03</internalNodes>
      <leafValues>
        7.3497402667999268e-01 1.0391999781131744e-01</leafValues></_>
    <_>
      <internalNodes>
        0 -1 14677 -6.8671191111207008e-03</internalNodes>
      <leafValues>
        5.9944754838943481e-01 -1.4104534685611725e-01</leafValues></_>
    <_>
      <internalNodes>
        0 -1 19993 2.2807768546044827e-03</internalNodes>
      <leafValues>
        -2.0357058942317963e-01 5.8737057447433472e-01</leafValues></_>
    <_>
      <internalNodes>
        0 -1 69046 -4.1171135380864143e-03</internalNodes>
      <leafValues>
        4.6374532580375671e-01 -2.2253818809986115e-01</leafValues></_>
    <_>
      <internalNodes>
        0 -1 4396 1.5602170024067163e-03</internalNodes>
      <leafValues>
        -2.4302163720130920e-01 5.2971845865249634e-01</leafValues></_>
    <_>
      <internalNodes>
        0 -1 3362 -1.0521953925490379e-02</internalNodes>
      <leafValues>
        7.2527498006820679e-01 -1.4587807655334473e-01</leafValues></_>
    <_>
      <internalNodes>
        0 -1 26592 1.3158200308680534e-03</internalNodes>
      <leafValues>
        -2.1056765317916870e-01 5.0262099504470825e-01</leafValues></_>
    <_>
      <internalNodes>
        0 -1 20341 -1.4752587303519249e-03</internalNodes>
      <leafValues>
        4.6030327677726746e-01 -2.3657973110675812e-01</leafValues></_>
    <_>
      <internalNodes>
        0 -1 59721 -2.2977455519139767e-03</internalNodes>
      <leafValues>
        5.5564296245574951e-01 -1.9689515233039856e-01</leafValues></_>
    <_>
      <internalNodes>
        0 -1 45276 -2.8618950396776199e-02</internalNodes>
      <leafValues>
        5.7705998420715332e-01 -2.0720534026622772e-01</leafValues></_>
    <_>
      <internalNodes>
        0 -1 53700 9.8711648024618626e-04</internalNodes>
      <leafValues>
        -2.0397286117076874e-01 5.2190804481506348e-01</leafValues></_>
    <_>
      <internalNodes>
        0 -1 35869 -3.8417845964431763e-02</internalNodes>
      <leafValues>
        7.3335838317871094e-01 -1.5000770986080170e-01</leafValues></_>
    <_>
      <internalNodes>
        0 -1 67531 4.6845957636833191e-02</internalNodes>
      <leafValues>
        -9.3393787741661072e-02 9.1648066043853760e-01</leafValues></_>
    <_>
      <internalNodes>
        0 -1 42868 9.9394517019391060e-03</internalNodes>
      <leafValues>
        -1.1019100993871689e-01 7.6490843296051025e-01</leafValues></_>
    <_>
      <internalNodes>
        0 -1 76380 4.3336851522326469e-03</internalNodes>
      <leafValues>
        1.9845567643642426e-01 -5.8255112171173096e-01</leafValues></_>
    <_>
      <internalNodes>
        0 -1 58127 -1.7222933820448816e-04</internalNodes>
      <leafValues>
        3.5442280769348145e-01 -3.1826230883598328e-01</leafValues></_></weakClassifiers></stage5>
</opencv_storage>
