<?xml version="1.0"?>
<opencv_storage>
<stage7>
  <maxWeakCount>20</maxWeakCount>
  <stageThreshold>5.0872866064310074e-02</stageThreshold>
  <weakClassifiers>
    <_>
      <internalNodes>
        0 -1 62321 -4.9556908197700977e-03</internalNodes>
      <leafValues>
        -5.0000000000000000e-01 8.1548976898193359e-01</leafValues></_>
    <_>
      <internalNodes>
        0 -1 2097 8.8148214854300022e-04</internalNodes>
      <leafValues>
        5.9299319982528687e-01 7.9637728631496429e-03</leafValues></_>
    <_>
      <internalNodes>
        0 -1 6329 6.5773492678999901e-03</internalNodes>
      <leafValues>
        -1.3950978219509125e-01 6.5905487537384033e-01</leafValues></_>
    <_>
      <internalNodes>
        0 -1 61981 -2.7943192981183529e-03</internalNodes>
      <leafValues>
        5.1669549942016602e-01 -2.1193030476570129e-01</leafValues></_>
    <_>
      <internalNodes>
        0 -1 62339 2.0133526995778084e-03</internalNodes>
      <leafValues>
        -1.6297799348831177e-01 4.9691104888916016e-01</leafValues></_>
    <_>
      <internalNodes>
        0 -1 69498 2.3737795650959015e-02</internalNodes>
      <leafValues>
        -1.8812905251979828e-01 5.3803652524948120e-01</leafValues></_>
    <_>
      <internalNodes>
        0 -1 4913 4.0640891529619694e-04</internalNodes>
      <leafValues>
        4.4008374214172363e-01 -2.3673827946186066e-01</leafValues></_>
    <_>
      <internalNodes>
        0 -1 19681 1.8609723076224327e-02</internalNodes>
      <leafValues>
        -9.6917644143104553e-02 9.5074301958084106e-01</leafValues></_>
    <_>
      <internalNodes>
        0 -1 77572 2.6526977308094501e-03</internalNodes>
      <leafValues>
        1.6321969032287598e-01 -7.0841163396835327e-01</leafValues></_>
    <_>
      <internalNodes>
        0 -1 60342 3.1720019876956940e-02</internalNodes>
      <leafValues>
        -1.5966063737869263e-01 6.5176051855087280e-01</leafValues></_>
    <_>
      <internalNodes>
        0 -1 45097 -8.4802348283119500e-05</internalNodes>
      <leafValues>
        3.6999535560607910e-01 -2.2496628761291504e-01</leafValues></_>
    <_>
      <internalNodes>
        0 -1 76764 -6.1149452812969685e-04</internalNodes>
      <leafValues>
        -2.8893345594406128e-01 3.1280863285064697e-01</leafValues></_>
    <_>
      <internalNodes>
        0 -1 70688 5.5118306772783399e-04</internalNodes>
      <leafValues>
        -1.9029796123504639e-01 4.9975284934043884e-01</leafValues></_>
    <_>
      <internalNodes>
        0 -1 27702 1.0678179096430540e-03</internalNodes>
      <leafValues>
        3.1258630752563477e-01 -2.7608993649482727e-01</leafValues></_>
    <_>
      <internalNodes>
        0 -1 16958 -1.0935774445533752e-01</internalNodes>
      <leafValues>
        -5.7654589414596558e-01 1.6533389687538147e-01</leafValues></_>
    <_>
      <internalNodes>
        0 -1 62372 8.0016709398478270e-04</internalNodes>
      <leafValues>
        -2.1735346317291260e-01 4.6918502449989319e-01</leafValues></_>
    <_>
      <internalNodes>
        0 -1 29828 5.2760411053895950e-03</internalNodes>
      <leafValues>
        -1.9490599632263184e-01 4.9092537164688110e-01</leafValues></_>
    <_>
      <internalNodes>
        0 -1 61075 -5.4827127605676651e-03</internalNodes>
      <leafValues>
        4.6070742607116699e-01 -1.7946863174438477e-01</leafValues></_>
    <_>
      <internalNodes>
        0 -1 49442 1.2620188295841217e-02</internalNodes>
      <leafValues>
        1.9495277106761932e-01 -4.7535055875778198e-01</leafValues></_>
    <_>
      <internalNodes>
        0 -1 68776 -3.3534737303853035e-04</internalNodes>
      <leafValues>
        -3.1736865639686584e-01 2.9856881499290466e-01</leafValues></_></weakClassifiers></stage7>
</opencv_storage>
